<?xml version="1.0"?>
<opencv_storage>
<stage4>
  <maxWeakCount>39</maxWeakCount>
  <stageThreshold>-2.5514247417449951e+00</stageThreshold>
  <weakClassifiers>
    <_>
      <internalNodes>
        0 -1 245984 1.4429125934839249e-02</internalNodes>
      <leafValues>
        -8.7101346254348755e-01 -1.4890401065349579e-01</leafValues></_>
    <_>
      <internalNodes>
        0 -1 16819 -1.3356283307075500e-02</internalNodes>
      <leafValues>
        3.0208948254585266e-01 -6.0521125793457031e-01</leafValues></_>
    <_>
      <internalNodes>
        0 -1 256115 1.3983587268739939e-03</internalNodes>
      <leafValues>
        -5.4887306690216064e-01 2.3156248033046722e-01</leafValues></_>
    <_>
      <internalNodes>
        0 -1 45558 1.0262867808341980e-01</internalNodes>
      <leafValues>
        -5.6673908233642578e-01 2.0260336995124817e-01</leafValues></_>
    <_>
      <internalNodes>
        0 -1 82197 -2.6699412614107132e-02</internalNodes>
      <leafValues>
        4.1830444335937500e-01 -2.3111312091350555e-01</leafValues></_>
    <_>
      <internalNodes>
        0 -1 15795 -2.1109310910105705e-02</internalNodes>
      <leafValues>
        1.8979531526565552e-01 -3.5242363810539246e-01</leafValues></_>
    <_>
      <internalNodes>
        0 -1 66585 3.1250056053977460e-05</internalNodes>
      <leafValues>
        -3.0780592560768127e-01 1.7702946066856384e-01</leafValues></_>
    <_>
      <internalNodes>
        0 -1 16748 5.9788458049297333e-02</internalNodes>
      <leafValues>
        -9.7104199230670929e-02 4.2875289916992188e-01</leafValues></_>
    <_>
      <internalNodes>
        0 -1 155302 1.7351901158690453e-02</internalNodes>
      <leafValues>
        -1.0925358533859253e-01 4.2062216997146606e-01</leafValues></_>
    <_>
      <internalNodes>
        0 -1 177121 -1.7967759631574154e-03</internalNodes>
      <leafValues>
        4.9229526519775391e-01 -1.0300682485103607e-01</leafValues></_>
    <_>
      <internalNodes>
        0 -1 245927 -3.2401974312961102e-03</internalNodes>
      <leafValues>
        4.6315127611160278e-01 -9.3298226594924927e-02</leafValues></_>
    <_>
      <internalNodes>
        0 -1 15283 -3.4366527199745178e-01</internalNodes>
      <leafValues>
        6.3219171762466431e-01 -7.5322017073631287e-02</leafValues></_>
    <_>
      <internalNodes>
        0 -1 13059 -2.9534841887652874e-03</internalNodes>
      <leafValues>
        2.5235319137573242e-01 -1.7563092708587646e-01</leafValues></_>
    <_>
      <internalNodes>
        0 -1 106085 -3.7314626388251781e-03</internalNodes>
      <leafValues>
        2.6431190967559814e-01 -1.6599692404270172e-01</leafValues></_>
    <_>
      <internalNodes>
        0 -1 13118 -1.1396028101444244e-01</internalNodes>
      <leafValues>
        2.4183742702007294e-01 -1.7390707135200500e-01</leafValues></_>
    <_>
      <internalNodes>
        0 -1 218928 1.1342021171003580e-03</internalNodes>
      <leafValues>
        -9.3528084456920624e-02 4.5531657338142395e-01</leafValues></_>
    <_>
      <internalNodes>
        0 -1 31231 6.3290451653301716e-03</internalNodes>
      <leafValues>
        -9.0969964861869812e-02 4.0038752555847168e-01</leafValues></_>
    <_>
      <internalNodes>
        0 -1 73881 -2.1343021653592587e-03</internalNodes>
      <leafValues>
        4.1971421241760254e-01 -9.1515958309173584e-02</leafValues></_>
    <_>
      <internalNodes>
        0 -1 66660 6.3923967536538839e-04</internalNodes>
      <leafValues>
        6.2266848981380463e-02 -6.4621788263320923e-01</leafValues></_>
    <_>
      <internalNodes>
        0 -1 16430 -1.2014086678391322e-04</internalNodes>
      <leafValues>
        1.3992035388946533e-01 -2.3975086212158203e-01</leafValues></_>
    <_>
      <internalNodes>
        0 -1 22723 -1.1075255461037159e-03</internalNodes>
      <leafValues>
        2.7731600403785706e-01 -1.2771107256412506e-01</leafValues></_>
    <_>
      <internalNodes>
        0 -1 15026 -5.4166992194950581e-03</internalNodes>
      <leafValues>
        3.0581375956535339e-01 -1.0769259184598923e-01</leafValues></_>
    <_>
      <internalNodes>
        0 -1 15533 2.2923644632101059e-02</internalNodes>
      <leafValues>
        -8.3595171570777893e-02 4.0356683731079102e-01</leafValues></_>
    <_>
      <internalNodes>
        0 -1 114409 2.9520125826820731e-04</internalNodes>
      <leafValues>
        8.1481076776981354e-02 -4.4970285892486572e-01</leafValues></_>
    <_>
      <internalNodes>
        0 -1 213407 2.9233575332909822e-03</internalNodes>
      <leafValues>
        -1.2957298755645752e-01 2.4968010187149048e-01</leafValues></_>
    <_>
      <internalNodes>
        0 -1 17373 9.0685620903968811e-02</internalNodes>
      <leafValues>
        -7.0318818092346191e-02 4.2630568146705627e-01</leafValues></_>
    <_>
      <internalNodes>
        0 -1 9514 -2.7817347645759583e-01</internalNodes>
      <leafValues>
        4.6244531869888306e-01 -8.1460043787956238e-02</leafValues></_>
    <_>
      <internalNodes>
        0 -1 175679 9.8188919946551323e-04</internalNodes>
      <leafValues>
        -8.0708190798759460e-02 3.7799185514450073e-01</leafValues></_>
    <_>
      <internalNodes>
        0 -1 31817 -6.0597389936447144e-02</internalNodes>
      <leafValues>
        -6.8746197223663330e-01 4.7857929021120071e-02</leafValues></_>
    <_>
      <internalNodes>
        0 -1 180830 -6.6132172942161560e-02</internalNodes>
      <leafValues>
        6.0245865583419800e-01 -5.6046579033136368e-02</leafValues></_>
    <_>
      <internalNodes>
        0 -1 224801 3.4205513074994087e-03</internalNodes>
      <leafValues>
        -6.7126616835594177e-02 4.0997117757797241e-01</leafValues></_>
    <_>
      <internalNodes>
        0 -1 81748 6.7393169738352299e-03</internalNodes>
      <leafValues>
        6.4931698143482208e-02 -4.5565450191497803e-01</leafValues></_>
    <_>
      <internalNodes>
        0 -1 72812 3.4968761610798538e-05</internalNodes>
      <leafValues>
        -1.5124851465225220e-01 2.0126582682132721e-01</leafValues></_>
    <_>
      <internalNodes>
        0 -1 76674 -7.2040606755763292e-04</internalNodes>
      <leafValues>
        1.7966949939727783e-01 -1.5160016715526581e-01</leafValues></_>
    <_>
      <internalNodes>
        0 -1 28528 -1.6745794564485550e-03</internalNodes>
      <leafValues>
        2.8025057911872864e-01 -1.1087040603160858e-01</leafValues></_>
    <_>
      <internalNodes>
        0 -1 64242 -7.5002718949690461e-04</internalNodes>
      <leafValues>
        -2.0959879457950592e-01 1.4209231734275818e-01</leafValues></_>
    <_>
      <internalNodes>
        0 -1 18647 5.2212692797183990e-02</internalNodes>
      <leafValues>
        8.3696499466896057e-02 -3.4503084421157837e-01</leafValues></_>
    <_>
      <internalNodes>
        0 -1 216812 -1.4061430096626282e-01</internalNodes>
      <leafValues>
        -6.0968565940856934e-01 4.9097724258899689e-02</leafValues></_>
    <_>
      <internalNodes>
        0 -1 180967 -3.6879775580018759e-03</internalNodes>
      <leafValues>
        2.3445932567119598e-01 -1.2448029965162277e-01</leafValues></_></weakClassifiers></stage4>
</opencv_storage>
