<?xml version="1.0"?>
<opencv_storage>
<stage14>
  <maxWeakCount>76</maxWeakCount>
  <stageThreshold>-2.2916204929351807e+00</stageThreshold>
  <weakClassifiers>
    <_>
      <internalNodes>
        0 -1 16122 -3.7540577352046967e-02</internalNodes>
      <leafValues>
        -5.4871279001235962e-01 -8.7736999988555908e-01</leafValues></_>
    <_>
      <internalNodes>
        0 -1 255973 1.5397462993860245e-02</internalNodes>
      <leafValues>
        -5.7358837127685547e-01 -7.0930503308773041e-02</leafValues></_>
    <_>
      <internalNodes>
        0 -1 97277 -4.2226396501064301e-02</internalNodes>
      <leafValues>
        3.1230333447456360e-01 -1.9103708863258362e-01</leafValues></_>
    <_>
      <internalNodes>
        0 -1 15083 -1.9698622636497021e-03</internalNodes>
      <leafValues>
        1.8693670630455017e-01 -1.9867573678493500e-01</leafValues></_>
    <_>
      <internalNodes>
        0 -1 15042 1.2030595541000366e-01</internalNodes>
      <leafValues>
        -2.3090799152851105e-01 1.7859533429145813e-01</leafValues></_>
    <_>
      <internalNodes>
        0 -1 189454 -2.6006051339209080e-03</internalNodes>
      <leafValues>
        3.6218756437301636e-01 -6.3463814556598663e-02</leafValues></_>
    <_>
      <internalNodes>
        0 -1 15045 1.6037713736295700e-02</internalNodes>
      <leafValues>
        -3.5799437761306763e-01 9.1859459877014160e-02</leafValues></_>
    <_>
      <internalNodes>
        0 -1 139773 1.0601494461297989e-01</internalNodes>
      <leafValues>
        1.0761229693889618e-01 -3.0846896767616272e-01</leafValues></_>
    <_>
      <internalNodes>
        0 -1 41082 -3.0343856662511826e-02</internalNodes>
      <leafValues>
        -3.8982746005058289e-01 6.7386776208877563e-02</leafValues></_>
    <_>
      <internalNodes>
        0 -1 86443 1.8924614787101746e-01</internalNodes>
      <leafValues>
        8.1187784671783447e-02 -2.7858138084411621e-01</leafValues></_>
    <_>
      <internalNodes>
        0 -1 164559 -4.2297719046473503e-03</internalNodes>
      <leafValues>
        3.7999156117439270e-01 -4.6956863254308701e-02</leafValues></_>
    <_>
      <internalNodes>
        0 -1 190404 7.9182125627994537e-03</internalNodes>
      <leafValues>
        4.2375616729259491e-02 -5.2435737848281860e-01</leafValues></_>
    <_>
      <internalNodes>
        0 -1 17488 -4.6818389091640711e-04</internalNodes>
      <leafValues>
        -4.0700516104698181e-01 5.2069567143917084e-02</leafValues></_>
    <_>
      <internalNodes>
        0 -1 138796 5.1235361024737358e-03</internalNodes>
      <leafValues>
        -8.0538995563983917e-02 2.7967387437820435e-01</leafValues></_>
    <_>
      <internalNodes>
        0 -1 80650 -2.0802274346351624e-01</internalNodes>
      <leafValues>
        7.4001032114028931e-01 -2.7407595887780190e-02</leafValues></_>
    <_>
      <internalNodes>
        0 -1 261554 -3.2160189002752304e-03</internalNodes>
      <leafValues>
        -3.4134486317634583e-01 7.2088301181793213e-02</leafValues></_>
    <_>
      <internalNodes>
        0 -1 261581 -3.7463575135916471e-03</internalNodes>
      <leafValues>
        -3.1949752569198608e-01 7.1687206625938416e-02</leafValues></_>
    <_>
      <internalNodes>
        0 -1 17246 -4.1895676404237747e-02</internalNodes>
      <leafValues>
        1.9375601410865784e-01 -1.3100729882717133e-01</leafValues></_>
    <_>
      <internalNodes>
        0 -1 17486 4.1401557973586023e-04</internalNodes>
      <leafValues>
        4.1959546506404877e-02 -5.3865104913711548e-01</leafValues></_>
    <_>
      <internalNodes>
        0 -1 60984 5.0697796046733856e-02</internalNodes>
      <leafValues>
        4.4467996805906296e-02 -4.1690728068351746e-01</leafValues></_>
    <_>
      <internalNodes>
        0 -1 123073 -8.5888039320707321e-03</internalNodes>
      <leafValues>
        1.6725033521652222e-01 -1.1123579740524292e-01</leafValues></_>
    <_>
      <internalNodes>
        0 -1 126152 -4.4051479548215866e-02</internalNodes>
      <leafValues>
        -5.7667469978332520e-01 3.2567381858825684e-02</leafValues></_>
    <_>
      <internalNodes>
        0 -1 170963 -8.4848850965499878e-02</internalNodes>
      <leafValues>
        -7.4285560846328735e-01 2.0206779241561890e-02</leafValues></_>
    <_>
      <internalNodes>
        0 -1 257555 -9.1834835708141327e-02</internalNodes>
      <leafValues>
        -3.8842570781707764e-01 4.5178137719631195e-02</leafValues></_>
    <_>
      <internalNodes>
        0 -1 94024 2.7837794274091721e-02</internalNodes>
      <leafValues>
        3.1848572194576263e-02 -5.3623449802398682e-01</leafValues></_>
    <_>
      <internalNodes>
        0 -1 256089 -8.6222458630800247e-03</internalNodes>
      <leafValues>
        3.7986305356025696e-01 -5.6000612676143646e-02</leafValues></_>
    <_>
      <internalNodes>
        0 -1 141589 9.0470507740974426e-02</internalNodes>
      <leafValues>
        -9.0761117637157440e-02 2.3994721472263336e-01</leafValues></_>
    <_>
      <internalNodes>
        0 -1 213712 1.4065098948776722e-02</internalNodes>
      <leafValues>
        -6.9867953658103943e-02 3.1427600979804993e-01</leafValues></_>
    <_>
      <internalNodes>
        0 -1 2064 -4.6943213790655136e-02</internalNodes>
      <leafValues>
        2.0563395321369171e-01 -9.5029078423976898e-02</leafValues></_>
    <_>
      <internalNodes>
        0 -1 230241 -1.5229997038841248e-01</internalNodes>
      <leafValues>
        6.2974989414215088e-01 -3.1233344227075577e-02</leafValues></_>
    <_>
      <internalNodes>
        0 -1 78338 6.1629083938896656e-03</internalNodes>
      <leafValues>
        -7.0391036570072174e-02 2.6421022415161133e-01</leafValues></_>
    <_>
      <internalNodes>
        0 -1 17089 1.6338723944500089e-03</internalNodes>
      <leafValues>
        -1.3506834208965302e-01 1.3861580193042755e-01</leafValues></_>
    <_>
      <internalNodes>
        0 -1 112067 -6.1330352909862995e-03</internalNodes>
      <leafValues>
        2.5849953293800354e-01 -7.9163402318954468e-02</leafValues></_>
    <_>
      <internalNodes>
        0 -1 81779 -1.3749530538916588e-02</internalNodes>
      <leafValues>
        -4.1121491789817810e-01 4.3974079191684723e-02</leafValues></_>
    <_>
      <internalNodes>
        0 -1 77641 -1.4507521409541368e-03</internalNodes>
      <leafValues>
        1.6778926551342010e-01 -1.1011159420013428e-01</leafValues></_>
    <_>
      <internalNodes>
        0 -1 239405 -1.2217498151585460e-03</internalNodes>
      <leafValues>
        2.5954777002334595e-01 -7.0340424776077271e-02</leafValues></_>
    <_>
      <internalNodes>
        0 -1 65199 6.2742322683334351e-02</internalNodes>
      <leafValues>
        3.3609531819820404e-02 -5.6915318965911865e-01</leafValues></_>
    <_>
      <internalNodes>
        0 -1 15915 1.6874289512634277e-01</internalNodes>
      <leafValues>
        -4.6264145523309708e-02 4.7877803444862366e-01</leafValues></_>
    <_>
      <internalNodes>
        0 -1 214452 -6.3502141274511814e-03</internalNodes>
      <leafValues>
        3.1798875331878662e-01 -6.2351807951927185e-02</leafValues></_>
    <_>
      <internalNodes>
        0 -1 214349 1.8852092325687408e-03</internalNodes>
      <leafValues>
        -1.1071785539388657e-01 1.8867695331573486e-01</leafValues></_>
    <_>
      <internalNodes>
        0 -1 181590 4.1703559691086411e-04</internalNodes>
      <leafValues>
        5.4765496402978897e-02 -3.4332588315010071e-01</leafValues></_>
    <_>
      <internalNodes>
        0 -1 97506 4.9515523016452789e-02</internalNodes>
      <leafValues>
        3.5307418555021286e-02 -4.6348649263381958e-01</leafValues></_>
    <_>
      <internalNodes>
        0 -1 33625 -3.9776634366717190e-05</internalNodes>
      <leafValues>
        8.8311970233917236e-02 -1.8602368235588074e-01</leafValues></_>
    <_>
      <internalNodes>
        0 -1 148871 1.8674088642001152e-02</internalNodes>
      <leafValues>
        2.9474504292011261e-02 -5.7393908500671387e-01</leafValues></_>
    <_>
      <internalNodes>
        0 -1 261068 3.3404238522052765e-02</internalNodes>
      <leafValues>
        -6.7173518240451813e-02 2.9188260436058044e-01</leafValues></_>
    <_>
      <internalNodes>
        0 -1 245100 -6.9978281855583191e-02</internalNodes>
      <leafValues>
        -3.3631941676139832e-01 5.9292156249284744e-02</leafValues></_>
    <_>
      <internalNodes>
        0 -1 256369 -7.6965847983956337e-04</internalNodes>
      <leafValues>
        -3.1553241610527039e-01 5.8413565158843994e-02</leafValues></_>
    <_>
      <internalNodes>
        0 -1 42171 -2.9350251425057650e-03</internalNodes>
      <leafValues>
        1.6356632113456726e-01 -1.0630197823047638e-01</leafValues></_>
    <_>
      <internalNodes>
        0 -1 239688 -4.0553895814809948e-05</internalNodes>
      <leafValues>
        1.3486206531524658e-01 -1.2646408379077911e-01</leafValues></_>
    <_>
      <internalNodes>
        0 -1 1082 -2.1729199215769768e-02</internalNodes>
      <leafValues>
        -3.3833464980125427e-01 4.7915033996105194e-02</leafValues></_>
    <_>
      <internalNodes>
        0 -1 15330 6.2029384076595306e-02</internalNodes>
      <leafValues>
        2.2153779864311218e-02 -6.8180614709854126e-01</leafValues></_>
    <_>
      <internalNodes>
        0 -1 106065 -3.1371827935799956e-04</internalNodes>
      <leafValues>
        1.5932478010654449e-01 -1.0735575854778290e-01</leafValues></_>
    <_>
      <internalNodes>
        0 -1 25549 -4.8001568764448166e-02</internalNodes>
      <leafValues>
        -4.6374383568763733e-01 4.2397774755954742e-02</leafValues></_>
    <_>
      <internalNodes>
        0 -1 241152 -5.5057783611118793e-03</internalNodes>
      <leafValues>
        2.7318972349166870e-01 -6.3256077468395233e-02</leafValues></_>
    <_>
      <internalNodes>
        0 -1 1461 -3.2571465708315372e-03</internalNodes>
      <leafValues>
        -6.8791526556015015e-01 2.5833586230874062e-02</leafValues></_>
    <_>
      <internalNodes>
        0 -1 72836 -1.5666796825826168e-03</internalNodes>
      <leafValues>
        1.8572811782360077e-01 -9.4790071249008179e-02</leafValues></_>
    <_>
      <internalNodes>
        0 -1 102571 -3.0178511142730713e-01</internalNodes>
      <leafValues>
        -5.6446141004562378e-01 2.8684765100479126e-02</leafValues></_>
    <_>
      <internalNodes>
        0 -1 252533 -1.0755332186818123e-03</internalNodes>
      <leafValues>
        1.4953683316707611e-01 -1.2229412049055099e-01</leafValues></_>
    <_>
      <internalNodes>
        0 -1 1448 1.4281311631202698e-01</internalNodes>
      <leafValues>
        3.4131307154893875e-02 -4.8579511046409607e-01</leafValues></_>
    <_>
      <internalNodes>
        0 -1 260996 -7.4772452935576439e-03</internalNodes>
      <leafValues>
        -6.6747128963470459e-01 1.9115889444947243e-02</leafValues></_>
    <_>
      <internalNodes>
        0 -1 113432 -1.7532221972942352e-02</internalNodes>
      <leafValues>
        1.8654185533523560e-01 -9.3780264258384705e-02</leafValues></_>
    <_>
      <internalNodes>
        0 -1 50394 -5.0908717093989253e-04</internalNodes>
      <leafValues>
        -3.9364311099052429e-01 4.9225211143493652e-02</leafValues></_>
    <_>
      <internalNodes>
        0 -1 46985 3.8831084966659546e-01</internalNodes>
      <leafValues>
        1.8720101565122604e-02 -7.6767265796661377e-01</leafValues></_>
    <_>
      <internalNodes>
        0 -1 144859 7.2561830282211304e-02</internalNodes>
      <leafValues>
        3.6442849785089493e-02 -3.9425438642501831e-01</leafValues></_>
    <_>
      <internalNodes>
        0 -1 213406 -1.0006197262555361e-03</internalNodes>
      <leafValues>
        1.4810447394847870e-01 -1.1047267168760300e-01</leafValues></_>
    <_>
      <internalNodes>
        0 -1 32039 -1.8603664636611938e-01</internalNodes>
      <leafValues>
        3.4455096721649170e-01 -5.2968923002481461e-02</leafValues></_>
    <_>
      <internalNodes>
        0 -1 13743 -1.4414124190807343e-01</internalNodes>
      <leafValues>
        -6.6805523633956909e-01 3.5049494355916977e-02</leafValues></_>
    <_>
      <internalNodes>
        0 -1 97835 -1.1167244985699654e-02</internalNodes>
      <leafValues>
        3.9479258656501770e-01 -4.6829856932163239e-02</leafValues></_>
    <_>
      <internalNodes>
        0 -1 142488 -4.3522395571926609e-05</internalNodes>
      <leafValues>
        1.4302894473075867e-01 -1.3787636160850525e-01</leafValues></_>
    <_>
      <internalNodes>
        0 -1 245818 -4.8968404531478882e-02</internalNodes>
      <leafValues>
        3.0046525597572327e-01 -6.1160434037446976e-02</leafValues></_>
    <_>
      <internalNodes>
        0 -1 49599 -1.4865264296531677e-01</internalNodes>
      <leafValues>
        -5.7624322175979614e-01 3.8849662989377975e-02</leafValues></_>
    <_>
      <internalNodes>
        0 -1 181321 -2.0151357166469097e-03</internalNodes>
      <leafValues>
        1.0853597521781921e-01 -1.6434305906295776e-01</leafValues></_>
    <_>
      <internalNodes>
        0 -1 14142 -5.5354117648676038e-04</internalNodes>
      <leafValues>
        7.5256213545799255e-02 -2.2242337465286255e-01</leafValues></_>
    <_>
      <internalNodes>
        0 -1 255171 -1.6464672517031431e-03</internalNodes>
      <leafValues>
        1.9157125055789948e-01 -9.6221677958965302e-02</leafValues></_>
    <_>
      <internalNodes>
        0 -1 260426 2.6047389954328537e-02</internalNodes>
      <leafValues>
        3.5372018814086914e-02 -4.8941946029663086e-01</leafValues></_>
    <_>
      <internalNodes>
        0 -1 243964 -7.2754491120576859e-03</internalNodes>
      <leafValues>
        2.2516575455665588e-01 -8.5944406688213348e-02</leafValues></_></weakClassifiers></stage14>
</opencv_storage>
