<?xml version="1.0"?>
<opencv_storage>
<stage2>
  <maxWeakCount>34</maxWeakCount>
  <stageThreshold>-2.9332478046417236e+00</stageThreshold>
  <weakClassifiers>
    <_>
      <internalNodes>
        0 -1 16511 -1.3499408960342407e-01</internalNodes>
      <leafValues>
        -3.3628318458795547e-02 -8.8843107223510742e-01</leafValues></_>
    <_>
      <internalNodes>
        0 -1 246318 1.8451586365699768e-02</internalNodes>
      <leafValues>
        -6.9613623619079590e-01 3.1122696399688721e-01</leafValues></_>
    <_>
      <internalNodes>
        0 -1 12298 8.9510001242160797e-02</internalNodes>
      <leafValues>
        -6.9792753458023071e-01 2.1194259822368622e-01</leafValues></_>
    <_>
      <internalNodes>
        0 -1 16058 -4.1152408812195063e-04</internalNodes>
      <leafValues>
        3.1583753228187561e-01 -4.6408602595329285e-01</leafValues></_>
    <_>
      <internalNodes>
        0 -1 127539 -1.4938300475478172e-02</internalNodes>
      <leafValues>
        5.5508649349212646e-01 -2.2709637880325317e-01</leafValues></_>
    <_>
      <internalNodes>
        0 -1 260952 4.4264178723096848e-04</internalNodes>
      <leafValues>
        -2.8402489423751831e-01 2.6786714792251587e-01</leafValues></_>
    <_>
      <internalNodes>
        0 -1 56530 6.4700990915298462e-02</internalNodes>
      <leafValues>
        1.2332688271999359e-01 -6.4776623249053955e-01</leafValues></_>
    <_>
      <internalNodes>
        0 -1 16029 1.1839468777179718e-01</internalNodes>
      <leafValues>
        -1.4299486577510834e-01 4.8751115798950195e-01</leafValues></_>
    <_>
      <internalNodes>
        0 -1 180587 3.9288466796278954e-03</internalNodes>
      <leafValues>
        -1.2516094744205475e-01 4.5494088530540466e-01</leafValues></_>
    <_>
      <internalNodes>
        0 -1 135202 -1.5605121850967407e-01</internalNodes>
      <leafValues>
        -6.5749818086624146e-01 1.0807296633720398e-01</leafValues></_>
    <_>
      <internalNodes>
        0 -1 126622 8.8546499609947205e-03</internalNodes>
      <leafValues>
        -1.3797451555728912e-01 4.3418133258819580e-01</leafValues></_>
    <_>
      <internalNodes>
        0 -1 197194 2.3453896865248680e-03</internalNodes>
      <leafValues>
        -8.6756616830825806e-02 5.0714045763015747e-01</leafValues></_>
    <_>
      <internalNodes>
        0 -1 232571 -6.3619128195568919e-04</internalNodes>
      <leafValues>
        -3.4646117687225342e-01 1.2411672621965408e-01</leafValues></_>
    <_>
      <internalNodes>
        0 -1 180421 -2.1070116199553013e-03</internalNodes>
      <leafValues>
        3.5985487699508667e-01 -1.2759487330913544e-01</leafValues></_>
    <_>
      <internalNodes>
        0 -1 222828 -2.4157864972949028e-03</internalNodes>
      <leafValues>
        -2.4010597169399261e-01 1.7162123322486877e-01</leafValues></_>
    <_>
      <internalNodes>
        0 -1 15786 1.9892598502337933e-03</internalNodes>
      <leafValues>
        1.3077329099178314e-01 -3.5385876893997192e-01</leafValues></_>
    <_>
      <internalNodes>
        0 -1 201093 -3.2615284435451031e-03</internalNodes>
      <leafValues>
        3.7678396701812744e-01 -1.1343174427747726e-01</leafValues></_>
    <_>
      <internalNodes>
        0 -1 177845 6.6283671185374260e-03</internalNodes>
      <leafValues>
        -1.0404836386442184e-01 3.7793380022048950e-01</leafValues></_>
    <_>
      <internalNodes>
        0 -1 96376 -3.1594157218933105e-02</internalNodes>
      <leafValues>
        -7.0889151096343994e-01 5.1874957978725433e-02</leafValues></_>
    <_>
      <internalNodes>
        0 -1 147902 -1.3328992645256221e-04</internalNodes>
      <leafValues>
        2.7445089817047119e-01 -1.3549369573593140e-01</leafValues></_>
    <_>
      <internalNodes>
        0 -1 14775 1.3153335452079773e-01</internalNodes>
      <leafValues>
        4.6296611428260803e-02 -7.4981153011322021e-01</leafValues></_>
    <_>
      <internalNodes>
        0 -1 193672 8.5624381899833679e-03</internalNodes>
      <leafValues>
        -1.0513874143362045e-01 3.4880688786506653e-01</leafValues></_>
    <_>
      <internalNodes>
        0 -1 65964 1.2956534046679735e-03</internalNodes>
      <leafValues>
        1.8119975924491882e-01 -1.9867590069770813e-01</leafValues></_>
    <_>
      <internalNodes>
        0 -1 214430 5.7134041562676430e-03</internalNodes>
      <leafValues>
        -9.3862012028694153e-02 5.0272601842880249e-01</leafValues></_>
    <_>
      <internalNodes>
        0 -1 190404 4.6028592623770237e-03</internalNodes>
      <leafValues>
        8.7314955890178680e-02 -4.3284603953361511e-01</leafValues></_>
    <_>
      <internalNodes>
        0 -1 32008 9.5405860338360071e-04</internalNodes>
      <leafValues>
        2.6967492699623108e-01 -1.4077852666378021e-01</leafValues></_>
    <_>
      <internalNodes>
        0 -1 156201 -8.7900869548320770e-03</internalNodes>
      <leafValues>
        3.1174468994140625e-01 -1.1964199692010880e-01</leafValues></_>
    <_>
      <internalNodes>
        0 -1 19329 -3.5652023507282138e-04</internalNodes>
      <leafValues>
        -2.1005146205425262e-01 1.5351851284503937e-01</leafValues></_>
    <_>
      <internalNodes>
        0 -1 133798 -1.2416752055287361e-02</internalNodes>
      <leafValues>
        3.9679944515228271e-01 -7.6991707086563110e-02</leafValues></_>
    <_>
      <internalNodes>
        0 -1 87201 8.0585654359310865e-05</internalNodes>
      <leafValues>
        1.6475993394851685e-01 -2.0082688331604004e-01</leafValues></_>
    <_>
      <internalNodes>
        0 -1 79121 -1.6677213352522813e-05</internalNodes>
      <leafValues>
        -3.8207504153251648e-01 8.5383251309394836e-02</leafValues></_>
    <_>
      <internalNodes>
        0 -1 142712 6.1821616254746914e-03</internalNodes>
      <leafValues>
        -7.5351335108280182e-02 4.2177137732505798e-01</leafValues></_>
    <_>
      <internalNodes>
        0 -1 259191 -4.3360839481465518e-04</internalNodes>
      <leafValues>
        -4.8079589009284973e-01 6.4546354115009308e-02</leafValues></_>
    <_>
      <internalNodes>
        0 -1 100713 -2.3786439560353756e-03</internalNodes>
      <leafValues>
        2.5441563129425049e-01 -1.2320106476545334e-01</leafValues></_></weakClassifiers></stage2>
</opencv_storage>
