<?xml version="1.0"?>
<opencv_storage>
<stage10>
  <maxWeakCount>63</maxWeakCount>
  <stageThreshold>-2.4406080245971680e+00</stageThreshold>
  <weakClassifiers>
    <_>
      <internalNodes>
        0 -1 259074 -1.6131160780787468e-02</internalNodes>
      <leafValues>
        -1.3850615918636322e-01 -8.2817184925079346e-01</leafValues></_>
    <_>
      <internalNodes>
        0 -1 255876 1.4121932908892632e-02</internalNodes>
      <leafValues>
        -5.7042974233627319e-01 2.7435172349214554e-02</leafValues></_>
    <_>
      <internalNodes>
        0 -1 15166 -2.3056812584400177e-02</internalNodes>
      <leafValues>
        2.6156133413314819e-01 -2.7178397774696350e-01</leafValues></_>
    <_>
      <internalNodes>
        0 -1 63324 8.0175437033176422e-02</internalNodes>
      <leafValues>
        -4.1449210047721863e-01 1.7570126056671143e-01</leafValues></_>
    <_>
      <internalNodes>
        0 -1 251264 -1.1028869077563286e-02</internalNodes>
      <leafValues>
        5.3783500194549561e-01 -6.5359644591808319e-02</leafValues></_>
    <_>
      <internalNodes>
        0 -1 185578 -2.9716365970671177e-03</internalNodes>
      <leafValues>
        3.8200804591178894e-01 -8.5472926497459412e-02</leafValues></_>
    <_>
      <internalNodes>
        0 -1 137394 -7.1748024784028530e-03</internalNodes>
      <leafValues>
        3.6322838068008423e-01 -1.0465558618307114e-01</leafValues></_>
    <_>
      <internalNodes>
        0 -1 17399 3.8363672501873225e-05</internalNodes>
      <leafValues>
        -2.5665166974067688e-01 1.3184790313243866e-01</leafValues></_>
    <_>
      <internalNodes>
        0 -1 13989 -5.8385025709867477e-02</internalNodes>
      <leafValues>
        -7.7847570180892944e-01 5.5073715746402740e-02</leafValues></_>
    <_>
      <internalNodes>
        0 -1 16191 -9.1735813766717911e-03</internalNodes>
      <leafValues>
        9.4208978116512299e-02 -3.1229773163795471e-01</leafValues></_>
    <_>
      <internalNodes>
        0 -1 261489 3.9644725620746613e-02</internalNodes>
      <leafValues>
        5.2168648689985275e-02 -8.7847870588302612e-01</leafValues></_>
    <_>
      <internalNodes>
        0 -1 238868 -1.0833430569618940e-03</internalNodes>
      <leafValues>
        2.1726894378662109e-01 -1.4316922426223755e-01</leafValues></_>
    <_>
      <internalNodes>
        0 -1 230237 1.0601889342069626e-02</internalNodes>
      <leafValues>
        3.8774088025093079e-02 -5.7454591989517212e-01</leafValues></_>
    <_>
      <internalNodes>
        0 -1 81136 -1.4503064751625061e-01</internalNodes>
      <leafValues>
        6.6927039623260498e-01 -4.0268134325742722e-02</leafValues></_>
    <_>
      <internalNodes>
        0 -1 209715 4.8155413242056966e-04</internalNodes>
      <leafValues>
        -8.8776782155036926e-02 3.3431309461593628e-01</leafValues></_>
    <_>
      <internalNodes>
        0 -1 209715 -4.0828548662830144e-05</internalNodes>
      <leafValues>
        1.9774919748306274e-01 -1.5429104864597321e-01</leafValues></_>
    <_>
      <internalNodes>
        0 -1 261526 1.5185053925961256e-03</internalNodes>
      <leafValues>
        -3.5318028926849365e-01 9.1109231114387512e-02</leafValues></_>
    <_>
      <internalNodes>
        0 -1 13851 3.8798552751541138e-01</internalNodes>
      <leafValues>
        6.5906658768653870e-02 -4.3190598487854004e-01</leafValues></_>
    <_>
      <internalNodes>
        0 -1 126621 -1.7311417032033205e-03</internalNodes>
      <leafValues>
        2.3329351842403412e-01 -1.1800549179315567e-01</leafValues></_>
    <_>
      <internalNodes>
        0 -1 52999 -9.3507356941699982e-02</internalNodes>
      <leafValues>
        8.0708868801593781e-02 -3.3377030491828918e-01</leafValues></_>
    <_>
      <internalNodes>
        0 -1 261225 -2.0393643528223038e-02</internalNodes>
      <leafValues>
        -4.9079748988151550e-01 4.7829966992139816e-02</leafValues></_>
    <_>
      <internalNodes>
        0 -1 168724 -6.5553560853004456e-02</internalNodes>
      <leafValues>
        3.3015605807304382e-01 -8.2919247448444366e-02</leafValues></_>
    <_>
      <internalNodes>
        0 -1 33596 -2.5453615933656693e-02</internalNodes>
      <leafValues>
        2.6760217547416687e-01 -1.1834615468978882e-01</leafValues></_>
    <_>
      <internalNodes>
        0 -1 213994 -2.1201269701123238e-03</internalNodes>
      <leafValues>
        2.7345037460327148e-01 -9.6089944243431091e-02</leafValues></_>
    <_>
      <internalNodes>
        0 -1 203933 3.3556669950485229e-03</internalNodes>
      <leafValues>
        -1.0184144973754883e-01 2.6462697982788086e-01</leafValues></_>
    <_>
      <internalNodes>
        0 -1 98157 -5.7622767053544521e-04</internalNodes>
      <leafValues>
        -4.7485598921775818e-01 5.7115457952022552e-02</leafValues></_>
    <_>
      <internalNodes>
        0 -1 218932 -1.5254539903253317e-03</internalNodes>
      <leafValues>
        2.0460380613803864e-01 -1.2935701012611389e-01</leafValues></_>
    <_>
      <internalNodes>
        0 -1 232227 -2.6386068202555180e-03</internalNodes>
      <leafValues>
        -2.8002709150314331e-01 8.4913633763790131e-02</leafValues></_>
    <_>
      <internalNodes>
        0 -1 73511 1.3551263511180878e-01</internalNodes>
      <leafValues>
        4.4538527727127075e-02 -5.0763326883316040e-01</leafValues></_>
    <_>
      <internalNodes>
        0 -1 210919 -1.2385980226099491e-03</internalNodes>
      <leafValues>
        1.7691338062286377e-01 -1.3067340850830078e-01</leafValues></_>
    <_>
      <internalNodes>
        0 -1 15576 7.0298684295266867e-04</internalNodes>
      <leafValues>
        5.0239417701959610e-02 -4.6898889541625977e-01</leafValues></_>
    <_>
      <internalNodes>
        0 -1 18499 -1.0453045368194580e-02</internalNodes>
      <leafValues>
        -5.8263254165649414e-01 3.3359851688146591e-02</leafValues></_>
    <_>
      <internalNodes>
        0 -1 203156 1.5268487622961402e-03</internalNodes>
      <leafValues>
        -8.4292039275169373e-02 2.8034862875938416e-01</leafValues></_>
    <_>
      <internalNodes>
        0 -1 223459 2.4254187010228634e-03</internalNodes>
      <leafValues>
        4.9209151417016983e-02 -4.6655270457267761e-01</leafValues></_>
    <_>
      <internalNodes>
        0 -1 193299 -1.0371198877692223e-03</internalNodes>
      <leafValues>
        1.8419289588928223e-01 -1.2766335904598236e-01</leafValues></_>
    <_>
      <internalNodes>
        0 -1 236310 -1.0431150440126657e-03</internalNodes>
      <leafValues>
        2.9092183709144592e-01 -7.8421652317047119e-02</leafValues></_>
    <_>
      <internalNodes>
        0 -1 140340 -3.6678504198789597e-02</internalNodes>
      <leafValues>
        1.7686879634857178e-01 -1.3037817180156708e-01</leafValues></_>
    <_>
      <internalNodes>
        0 -1 127013 -1.2267536949366331e-03</internalNodes>
      <leafValues>
        2.5289601087570190e-01 -1.1067810654640198e-01</leafValues></_>
    <_>
      <internalNodes>
        0 -1 250087 -6.0921353287994862e-03</internalNodes>
      <leafValues>
        1.2578934431076050e-01 -1.8582046031951904e-01</leafValues></_>
    <_>
      <internalNodes>
        0 -1 261006 3.2956115319393575e-05</internalNodes>
      <leafValues>
        -2.1358610689640045e-01 1.0481984168291092e-01</leafValues></_>
    <_>
      <internalNodes>
        0 -1 255512 8.1219337880611420e-04</internalNodes>
      <leafValues>
        -9.3245513737201691e-02 2.5167819857597351e-01</leafValues></_>
    <_>
      <internalNodes>
        0 -1 231535 -5.7091820985078812e-02</internalNodes>
      <leafValues>
        3.5244679450988770e-01 -6.1436485499143600e-02</leafValues></_>
    <_>
      <internalNodes>
        0 -1 16949 -4.6436890959739685e-02</internalNodes>
      <leafValues>
        1.9832138717174530e-01 -1.1193222552537918e-01</leafValues></_>
    <_>
      <internalNodes>
        0 -1 15291 -9.6324674785137177e-02</internalNodes>
      <leafValues>
        -5.9869158267974854e-01 3.7953369319438934e-02</leafValues></_>
    <_>
      <internalNodes>
        0 -1 229961 -1.7297661397606134e-03</internalNodes>
      <leafValues>
        3.0022558569908142e-01 -7.5723297894001007e-02</leafValues></_>
    <_>
      <internalNodes>
        0 -1 261070 4.3052941560745239e-02</internalNodes>
      <leafValues>
        -6.2074527144432068e-02 3.2702285051345825e-01</leafValues></_>
    <_>
      <internalNodes>
        0 -1 29785 -4.2017869418486953e-05</internalNodes>
      <leafValues>
        1.5034733712673187e-01 -1.3226129114627838e-01</leafValues></_>
    <_>
      <internalNodes>
        0 -1 29785 4.4551285100169480e-05</internalNodes>
      <leafValues>
        -1.1942636966705322e-01 1.8445250391960144e-01</leafValues></_>
    <_>
      <internalNodes>
        0 -1 43605 7.7655375003814697e-02</internalNodes>
      <leafValues>
        3.3547200262546539e-02 -5.8095520734786987e-01</leafValues></_>
    <_>
      <internalNodes>
        0 -1 137254 5.4456724319607019e-04</internalNodes>
      <leafValues>
        -7.6163940131664276e-02 2.8112456202507019e-01</leafValues></_>
    <_>
      <internalNodes>
        0 -1 13851 5.2499836683273315e-01</internalNodes>
      <leafValues>
        2.4059105664491653e-02 -9.0378099679946899e-01</leafValues></_>
    <_>
      <internalNodes>
        0 -1 33996 -4.4159120880067348e-03</internalNodes>
      <leafValues>
        -4.1687971353530884e-01 4.1415743529796600e-02</leafValues></_>
    <_>
      <internalNodes>
        0 -1 244007 -3.9225753396749496e-02</internalNodes>
      <leafValues>
        -6.0004001855850220e-01 3.1716495752334595e-02</leafValues></_>
    <_>
      <internalNodes>
        0 -1 261595 -6.7447917535901070e-03</internalNodes>
      <leafValues>
        -6.3914257287979126e-01 2.7616122737526894e-02</leafValues></_>
    <_>
      <internalNodes>
        0 -1 57441 -5.5252414196729660e-02</internalNodes>
      <leafValues>
        -5.7454919815063477e-01 3.0475132167339325e-02</leafValues></_>
    <_>
      <internalNodes>
        0 -1 114401 -3.7264171987771988e-03</internalNodes>
      <leafValues>
        1.1781815439462662e-01 -1.7774201929569244e-01</leafValues></_>
    <_>
      <internalNodes>
        0 -1 13833 -1.7239496111869812e-01</internalNodes>
      <leafValues>
        2.8785234689712524e-01 -7.9391531646251678e-02</leafValues></_>
    <_>
      <internalNodes>
        0 -1 97036 4.4053532183170319e-03</internalNodes>
      <leafValues>
        -1.1238311231136322e-01 2.1238903701305389e-01</leafValues></_>
    <_>
      <internalNodes>
        0 -1 13145 1.5044961124658585e-02</internalNodes>
      <leafValues>
        3.4306623041629791e-02 -5.8702552318572998e-01</leafValues></_>
    <_>
      <internalNodes>
        0 -1 112018 -3.8750637322664261e-02</internalNodes>
      <leafValues>
        -5.9787464141845703e-01 2.9375577345490456e-02</leafValues></_>
    <_>
      <internalNodes>
        0 -1 221112 9.3435359303839505e-05</internalNodes>
      <leafValues>
        -1.1762760579586029e-01 1.6680157184600830e-01</leafValues></_>
    <_>
      <internalNodes>
        0 -1 119916 -2.1141614764928818e-02</internalNodes>
      <leafValues>
        -7.8945606946945190e-01 2.4536821991205215e-02</leafValues></_>
    <_>
      <internalNodes>
        0 -1 17399 1.0362882167100906e-03</internalNodes>
      <leafValues>
        8.7548136711120605e-02 -2.1701537072658539e-01</leafValues></_></weakClassifiers></stage10>
</opencv_storage>
