<?xml version="1.0"?>
<opencv_storage>
<cascade>
  <stageType>BOOST</stageType>
  <featureType>HAAR</featureType>
  <height>24</height>
  <width>24</width>
  <stageParams>
    <boostType>GAB</boostType>
    <minHitRate>9.9500000476837158e-01</minHitRate>
    <maxFalseAlarm>5.0000000000000000e-01</maxFalseAlarm>
    <weightTrimRate>9.4999999999999996e-01</weightTrimRate>
    <maxDepth>1</maxDepth>
    <maxWeakCount>100</maxWeakCount></stageParams>
  <featureParams>
    <maxCatCount>0</maxCatCount>
    <featSize>1</featSize>
    <mode>ALL</mode></featureParams>
  <stageNum>13</stageNum>
  <stages>
    <!-- stage 0 -->
    <_>
      <maxWeakCount>3</maxWeakCount>
      <stageThreshold>-1.1539611816406250e+00</stageThreshold>
      <weakClassifiers>
        <_>
          <internalNodes>
            0 -1 52 1.1764246039092541e-02</internalNodes>
          <leafValues>
            -9.2156863212585449e-01 7.4683547019958496e-01</leafValues></_>
        <_>
          <internalNodes>
            0 -1 8 -7.7555924654006958e-03</internalNodes>
          <leafValues>
            6.2916713953018188e-01 -8.3224195241928101e-01</leafValues></_>
        <_>
          <internalNodes>
            0 -1 23 -5.8052614331245422e-02</internalNodes>
          <leafValues>
            6.2687021493911743e-01 -8.6155968904495239e-01</leafValues></_></weakClassifiers></_>
    <!-- stage 1 -->
    <_>
      <maxWeakCount>4</maxWeakCount>
      <stageThreshold>-1.8846691846847534e+00</stageThreshold>
      <weakClassifiers>
        <_>
          <internalNodes>
            0 -1 28 -4.8588719218969345e-02</internalNodes>
          <leafValues>
            4.2553192377090454e-01 -9.1111111640930176e-01</leafValues></_>
        <_>
          <internalNodes>
            0 -1 47 1.1978818103671074e-02</internalNodes>
          <leafValues>
            -7.9994118213653564e-01 5.4800909757614136e-01</leafValues></_>
        <_>
          <internalNodes>
            0 -1 3 -1.6009368002414703e-02</internalNodes>
          <leafValues>
            6.3547593355178833e-01 -7.0073270797729492e-01</leafValues></_>
        <_>
          <internalNodes>
            0 -1 11 -1.0332973301410675e-01</internalNodes>
          <leafValues>
            5.3965228796005249e-01 -8.2083445787429810e-01</leafValues></_></weakClassifiers></_>
    <!-- stage 2 -->
    <_>
      <maxWeakCount>3</maxWeakCount>
      <stageThreshold>-1.2162756919860840e+00</stageThreshold>
      <weakClassifiers>
        <_>
          <internalNodes>
            0 -1 9 -1.9493680447340012e-02</internalNodes>
          <leafValues>
            4.4578313827514648e-01 -8.8537549972534180e-01</leafValues></_>
        <_>
          <internalNodes>
            0 -1 21 -3.1511645764112473e-02</internalNodes>
          <leafValues>
            6.3295823335647583e-01 -7.6115912199020386e-01</leafValues></_>
        <_>
          <internalNodes>
            0 -1 50 1.0317053645849228e-02</internalNodes>
          <leafValues>
            -8.5666835308074951e-01 4.3025892972946167e-01</leafValues></_></weakClassifiers></_>
    <!-- stage 3 -->
    <_>
      <maxWeakCount>4</maxWeakCount>
      <stageThreshold>-1.6001672744750977e+00</stageThreshold>
      <weakClassifiers>
        <_>
          <internalNodes>
            0 -1 26 6.7271530628204346e-02</internalNodes>
          <leafValues>
            -9.2362767457962036e-01 -1.4117647707462311e-01</leafValues></_>
        <_>
          <internalNodes>
            0 -1 7 -1.1871748138219118e-03</internalNodes>
          <leafValues>
            3.2047352194786072e-01 -8.1939375400543213e-01</leafValues></_>
        <_>
          <internalNodes>
            0 -1 55 1.0309619829058647e-03</internalNodes>
          <leafValues>
            -6.1283409595489502e-01 4.8574244976043701e-01</leafValues></_>
        <_>
          <internalNodes>
            0 -1 42 -6.5670319600030780e-04</internalNodes>
          <leafValues>
            8.1263458728790283e-01 -3.8417905569076538e-01</leafValues></_></weakClassifiers></_>
    <!-- stage 4 -->
    <_>
      <maxWeakCount>5</maxWeakCount>
      <stageThreshold>-1.3067047595977783e+00</stageThreshold>
      <weakClassifiers>
        <_>
          <internalNodes>
            0 -1 25 -7.8025502152740955e-03</internalNodes>
          <leafValues>
            5.5000001192092896e-01 -7.8870671987533569e-01</leafValues></_>
        <_>
          <internalNodes>
            0 -1 1 2.1068832278251648e-01</internalNodes>
          <leafValues>
            -9.1368794441223145e-01 2.1343451738357544e-01</leafValues></_>
        <_>
          <internalNodes>
            0 -1 51 5.4785143584012985e-03</internalNodes>
          <leafValues>
            -5.9395891427993774e-01 4.9676382541656494e-01</leafValues></_>
        <_>
          <internalNodes>
            0 -1 18 -2.0330164115875959e-03</internalNodes>
          <leafValues>
            3.5475271940231323e-01 -7.5456136465072632e-01</leafValues></_>
        <_>
          <internalNodes>
            0 -1 14 -2.3135631345212460e-03</internalNodes>
          <leafValues>
            6.8460196256637573e-01 -4.7363501787185669e-01</leafValues></_></weakClassifiers></_>
    <!-- stage 5 -->
    <_>
      <maxWeakCount>6</maxWeakCount>
      <stageThreshold>-1.2898403406143188e+00</stageThreshold>
      <weakClassifiers>
        <_>
          <internalNodes>
            0 -1 24 -2.4951365776360035e-03</internalNodes>
          <leafValues>
            4.2307692766189575e-01 -8.0633145570755005e-01</leafValues></_>
        <_>
          <internalNodes>
            0 -1 10 -7.1578980423510075e-03</internalNodes>
          <leafValues>
            1.7604024708271027e-01 -7.9350107908248901e-01</leafValues></_>
        <_>
          <internalNodes>
            0 -1 27 -2.0893672481179237e-03</internalNodes>
          <leafValues>
            3.4941467642784119e-01 -6.4165467023849487e-01</leafValues></_>
        <_>
          <internalNodes>
            0 -1 45 5.7065710425376892e-03</internalNodes>
          <leafValues>
            -3.8925206661224365e-01 6.1870294809341431e-01</leafValues></_>
        <_>
          <internalNodes>
            0 -1 41 -1.5151508850976825e-03</internalNodes>
          <leafValues>
            7.9126256704330444e-01 -2.6671645045280457e-01</leafValues></_>
        <_>
          <internalNodes>
            0 -1 30 -1.1787132825702429e-03</internalNodes>
          <leafValues>
            6.3903796672821045e-01 -3.5299527645111084e-01</leafValues></_></weakClassifiers></_>
    <!-- stage 6 -->
    <_>
      <maxWeakCount>6</maxWeakCount>
      <stageThreshold>-1.5060104131698608e+00</stageThreshold>
      <weakClassifiers>
        <_>
          <internalNodes>
            0 -1 16 -4.1787758469581604e-02</internalNodes>
          <leafValues>
            3.6585366725921631e-01 -7.7737224102020264e-01</leafValues></_>
        <_>
          <internalNodes>
            0 -1 4 -9.1570541262626648e-03</internalNodes>
          <leafValues>
            2.8525546193122864e-01 -6.2989288568496704e-01</leafValues></_>
        <_>
          <internalNodes>
            0 -1 32 2.4219315499067307e-02</internalNodes>
          <leafValues>
            -9.5942902565002441e-01 2.3019745945930481e-01</leafValues></_>
        <_>
          <internalNodes>
            0 -1 20 -2.9594698920845985e-02</internalNodes>
          <leafValues>
            8.4681421518325806e-01 -3.2359343767166138e-01</leafValues></_>
        <_>
          <internalNodes>
            0 -1 22 -1.3450435362756252e-03</internalNodes>
          <leafValues>
            6.7159324884414673e-01 -2.8456673026084900e-01</leafValues></_>
        <_>
          <internalNodes>
            0 -1 54 9.7321916837245226e-04</internalNodes>
          <leafValues>
            -6.7694246768951416e-01 3.6836332082748413e-01</leafValues></_></weakClassifiers></_>
    <!-- stage 7 -->
    <_>
      <maxWeakCount>5</maxWeakCount>
      <stageThreshold>-1.3563431501388550e+00</stageThreshold>
      <weakClassifiers>
        <_>
          <internalNodes>
            0 -1 31 -2.4271490983664989e-03</internalNodes>
          <leafValues>
            -3.4590565708432131e-17 -8.3367139101028442e-01</leafValues></_>
        <_>
          <internalNodes>
            0 -1 46 -5.6983353570103645e-03</internalNodes>
          <leafValues>
            5.4391759634017944e-01 -5.3687715530395508e-01</leafValues></_>
        <_>
          <internalNodes>
            0 -1 29 -2.1376595832407475e-03</internalNodes>
          <leafValues>
            3.5876989364624023e-01 -6.6928464174270630e-01</leafValues></_>
        <_>
          <internalNodes>
            0 -1 13 -4.6869216021150351e-05</internalNodes>
          <leafValues>
            3.3501920104026794e-01 -6.7294281721115112e-01</leafValues></_>
        <_>
          <internalNodes>
            0 -1 17 8.4966747090220451e-03</internalNodes>
          <leafValues>
            -6.7958372831344604e-01 3.6753797531127930e-01</leafValues></_></weakClassifiers></_>
    <!-- stage 8 -->
    <_>
      <maxWeakCount>4</maxWeakCount>
      <stageThreshold>-1.2917129993438721e+00</stageThreshold>
      <weakClassifiers>
        <_>
          <internalNodes>
            0 -1 36 2.3334536235779524e-03</internalNodes>
          <leafValues>
            -7.8927910327911377e-01 3.3333334326744080e-01</leafValues></_>
        <_>
          <internalNodes>
            0 -1 35 -3.9312341250479221e-03</internalNodes>
          <leafValues>
            5.4133218526840210e-01 -5.6599760055541992e-01</leafValues></_>
        <_>
          <internalNodes>
            0 -1 0 7.0764571428298950e-03</internalNodes>
          <leafValues>
            -4.1258937120437622e-01 5.9990584850311279e-01</leafValues></_>
        <_>
          <internalNodes>
            0 -1 48 -6.3951534684747458e-05</internalNodes>
          <leafValues>
            4.7615313529968262e-01 -4.6495366096496582e-01</leafValues></_></weakClassifiers></_>
    <!-- stage 9 -->
    <_>
      <maxWeakCount>6</maxWeakCount>
      <stageThreshold>-1.2140659093856812e+00</stageThreshold>
      <weakClassifiers>
        <_>
          <internalNodes>
            0 -1 6 -2.3323584347963333e-02</internalNodes>
          <leafValues>
            1.3157895207405090e-01 -8.2066279649734497e-01</leafValues></_>
        <_>
          <internalNodes>
            0 -1 52 1.3422407209873199e-02</internalNodes>
          <leafValues>
            -6.8338787555694580e-01 3.6763375997543335e-01</leafValues></_>
        <_>
          <internalNodes>
            0 -1 44 -6.1814337968826294e-03</internalNodes>
          <leafValues>
            6.2439942359924316e-01 -3.6558631062507629e-01</leafValues></_>
        <_>
          <internalNodes>
            0 -1 53 -1.1893246119143441e-04</internalNodes>
          <leafValues>
            5.0851923227310181e-01 -4.0377202630043030e-01</leafValues></_>
        <_>
          <internalNodes>
            0 -1 40 -5.8436795370653272e-04</internalNodes>
          <leafValues>
            4.8711627721786499e-01 -4.2865699529647827e-01</leafValues></_>
        <_>
          <internalNodes>
            0 -1 15 -1.2153955176472664e-03</internalNodes>
          <leafValues>
            6.2423926591873169e-01 -3.4006452560424805e-01</leafValues></_></weakClassifiers></_>
    <!-- stage 10 -->
    <_>
      <maxWeakCount>6</maxWeakCount>
      <stageThreshold>-1.4525641202926636e+00</stageThreshold>
      <weakClassifiers>
        <_>
          <internalNodes>
            0 -1 12 -4.2333465069532394e-02</internalNodes>
          <leafValues>
            4.2253520339727402e-02 -7.9922777414321899e-01</leafValues></_>
        <_>
          <internalNodes>
            0 -1 58 3.3294367603957653e-03</internalNodes>
          <leafValues>
            -7.7420049905776978e-01 7.7729031443595886e-02</leafValues></_>
        <_>
          <internalNodes>
            0 -1 5 -4.1207158938050270e-03</internalNodes>
          <leafValues>
            3.1231990456581116e-01 -6.1724483966827393e-01</leafValues></_>
        <_>
          <internalNodes>
            0 -1 38 -4.3174713850021362e-02</internalNodes>
          <leafValues>
            2.1574892103672028e-01 -9.5321810245513916e-01</leafValues></_>
        <_>
          <internalNodes>
            0 -1 49 8.7615251541137695e-03</internalNodes>
          <leafValues>
            -7.3901712894439697e-01 2.4892039597034454e-01</leafValues></_>
        <_>
          <internalNodes>
            0 -1 2 -4.4414261355996132e-03</internalNodes>
          <leafValues>
            4.2107814550399780e-01 -5.7848978042602539e-01</leafValues></_></weakClassifiers></_>
    <!-- stage 11 -->
    <_>
      <maxWeakCount>5</maxWeakCount>
      <stageThreshold>-1.1913377046585083e+00</stageThreshold>
      <weakClassifiers>
        <_>
          <internalNodes>
            0 -1 37 1.9680073019117117e-03</internalNodes>
          <leafValues>
            -7.8909093141555786e-01 5.8974361419677734e-01</leafValues></_>
        <_>
          <internalNodes>
            0 -1 43 2.2855759598314762e-03</internalNodes>
          <leafValues>
            -5.4065603017807007e-01 5.2431958913803101e-01</leafValues></_>
        <_>
          <internalNodes>
            0 -1 57 6.0431966558098793e-03</internalNodes>
          <leafValues>
            -8.2555174827575684e-01 2.7230107784271240e-01</leafValues></_>
        <_>
          <internalNodes>
            0 -1 19 -3.7393607199192047e-03</internalNodes>
          <leafValues>
            6.6802459955215454e-01 -3.5929250717163086e-01</leafValues></_>
        <_>
          <internalNodes>
            0 -1 59 9.7440078388899565e-04</internalNodes>
          <leafValues>
            -8.0191642045974731e-01 3.9668130874633789e-01</leafValues></_></weakClassifiers></_>
    <!-- stage 12 -->
    <_>
      <maxWeakCount>4</maxWeakCount>
      <stageThreshold>-1.1158893108367920e+00</stageThreshold>
      <weakClassifiers>
        <_>
          <internalNodes>
            0 -1 39 -8.6580315837636590e-04</internalNodes>
          <leafValues>
            1. -7.9211467504501343e-01</leafValues></_>
        <_>
          <internalNodes>
            0 -1 34 -3.5542021505534649e-03</internalNodes>
          <leafValues>
            6.7803090810775757e-01 -5.6312388181686401e-01</leafValues></_>
        <_>
          <internalNodes>
            0 -1 33 3.8656932301819324e-03</internalNodes>
          <leafValues>
            -3.7566974759101868e-01 9.2919474840164185e-01</leafValues></_>
        <_>
          <internalNodes>
            0 -1 56 2.7220579795539379e-03</internalNodes>
          <leafValues>
            -4.6248000860214233e-01 6.1501902341842651e-01</leafValues></_></weakClassifiers></_></stages>
  <features>
    <_>
      <rects>
        <_>
          0 2 24 1 -1.</_>
        <_>
          6 2 12 1 2.</_></rects>
      <tilted>0</tilted></_>
    <_>
      <rects>
        <_>
          0 10 24 12 -1.</_>
        <_>
          0 16 24 6 2.</_></rects>
      <tilted>0</tilted></_>
    <_>
      <rects>
        <_>
          0 12 2 12 -1.</_>
        <_>
          1 12 1 12 2.</_></rects>
      <tilted>0</tilted></_>
    <_>
      <rects>
        <_>
          0 12 6 12 -1.</_>
        <_>
          0 12 3 6 2.</_>
        <_>
          3 18 3 6 2.</_></rects>
      <tilted>0</tilted></_>
    <_>
      <rects>
        <_>
          0 14 4 10 -1.</_>
        <_>
          0 14 2 5 2.</_>
        <_>
          2 19 2 5 2.</_></rects>
      <tilted>0</tilted></_>
    <_>
      <rects>
        <_>
          0 14 6 8 -1.</_>
        <_>
          0 14 3 4 2.</_>
        <_>
          3 18 3 4 2.</_></rects>
      <tilted>0</tilted></_>
    <_>
      <rects>
        <_>
          0 14 10 4 -1.</_>
        <_>
          0 15 10 2 2.</_></rects>
      <tilted>0</tilted></_>
    <_>
      <rects>
        <_>
          0 19 2 5 -1.</_>
        <_>
          1 19 1 5 2.</_></rects>
      <tilted>0</tilted></_>
    <_>
      <rects>
        <_>
          0 19 6 3 -1.</_>
        <_>
          3 19 3 3 2.</_></rects>
      <tilted>0</tilted></_>
    <_>
      <rects>
        <_>
          0 20 6 4 -1.</_>
        <_>
          3 20 3 4 2.</_></rects>
      <tilted>0</tilted></_>
    <_>
      <rects>
        <_>
          0 23 24 1 -1.</_>
        <_>
          6 23 12 1 2.</_></rects>
      <tilted>0</tilted></_>
    <_>
      <rects>
        <_>
          1 8 23 12 -1.</_>
        <_>
          1 11 23 6 2.</_></rects>
      <tilted>0</tilted></_>
    <_>
      <rects>
        <_>
          1 15 22 3 -1.</_>
        <_>
          1 16 22 1 3.</_></rects>
      <tilted>0</tilted></_>
    <_>
      <rects>
        <_>
          1 23 2 1 -1.</_>
        <_>
          2 23 1 1 2.</_></rects>
      <tilted>0</tilted></_>
    <_>
      <rects>
        <_>
          3 8 6 2 -1.</_>
        <_>
          5 8 2 2 3.</_></rects>
      <tilted>0</tilted></_>
    <_>
      <rects>
        <_>
          4 8 3 2 -1.</_>
        <_>
          5 8 1 2 3.</_></rects>
      <tilted>0</tilted></_>
    <_>
      <rects>
        <_>
          4 15 14 3 -1.</_>
        <_>
          4 16 14 1 3.</_></rects>
      <tilted>0</tilted></_>
    <_>
      <rects>
        <_>
          4 17 13 4 -1.</_>
        <_>
          4 18 13 2 2.</_></rects>
      <tilted>0</tilted></_>
    <_>
      <rects>
        <_>
          4 18 3 4 -1.</_>
        <_>
          4 20 3 2 2.</_></rects>
      <tilted>0</tilted></_>
    <_>
      <rects>
        <_>
          5 20 1 3 -1.</_>
        <_>
          4 21 1 1 3.</_></rects>
      <tilted>1</tilted></_>
    <_>
      <rects>
        <_>
          6 8 12 4 -1.</_>
        <_>
          10 8 4 4 3.</_></rects>
      <tilted>0</tilted></_>
    <_>
      <rects>
        <_>
          6 18 6 6 -1.</_>
        <_>
          6 21 6 3 2.</_></rects>
      <tilted>0</tilted></_>
    <_>
      <rects>
        <_>
          7 4 4 6 -1.</_>
        <_>
          8 4 2 6 2.</_></rects>
      <tilted>0</tilted></_>
    <_>
      <rects>
        <_>
          7 4 8 16 -1.</_>
        <_>
          7 8 8 8 2.</_></rects>
      <tilted>0</tilted></_>
    <_>
      <rects>
        <_>
          7 9 3 3 -1.</_>
        <_>
          8 9 1 3 3.</_></rects>
      <tilted>0</tilted></_>
    <_>
      <rects>
        <_>
          7 15 11 2 -1.</_>
        <_>
          7 16 11 1 2.</_></rects>
      <tilted>0</tilted></_>
    <_>
      <rects>
        <_>
          7 15 15 8 -1.</_>
        <_>
          7 17 15 4 2.</_></rects>
      <tilted>0</tilted></_>
    <_>
      <rects>
        <_>
          8 5 7 4 -1.</_>
        <_>
          8 7 7 2 2.</_></rects>
      <tilted>0</tilted></_>
    <_>
      <rects>
        <_>
          8 18 10 6 -1.</_>
        <_>
          8 21 10 3 2.</_></rects>
      <tilted>0</tilted></_>
    <_>
      <rects>
        <_>
          8 21 12 2 -1.</_>
        <_>
          8 22 12 1 2.</_></rects>
      <tilted>0</tilted></_>
    <_>
      <rects>
        <_>
          9 3 3 6 -1.</_>
        <_>
          10 3 1 6 3.</_></rects>
      <tilted>0</tilted></_>
    <_>
      <rects>
        <_>
          9 15 8 2 -1.</_>
        <_>
          9 16 8 1 2.</_></rects>
      <tilted>0</tilted></_>
    <_>
      <rects>
        <_>
          10 10 4 12 -1.</_>
        <_>
          10 16 4 6 2.</_></rects>
      <tilted>0</tilted></_>
    <_>
      <rects>
        <_>
          11 14 1 6 -1.</_>
        <_>
          11 16 1 2 3.</_></rects>
      <tilted>0</tilted></_>
    <_>
      <rects>
        <_>
          11 15 11 2 -1.</_>
        <_>
          11 16 11 1 2.</_></rects>
      <tilted>0</tilted></_>
    <_>
      <rects>
        <_>
          11 15 12 2 -1.</_>
        <_>
          11 16 12 1 2.</_></rects>
      <tilted>0</tilted></_>
    <_>
      <rects>
        <_>
          13 1 3 2 -1.</_>
        <_>
          14 1 1 2 3.</_></rects>
      <tilted>0</tilted></_>
    <_>
      <rects>
        <_>
          14 1 2 4 -1.</_>
        <_>
          14 1 1 2 2.</_>
        <_>
          15 3 1 2 2.</_></rects>
      <tilted>0</tilted></_>
    <_>
      <rects>
        <_>
          14 6 6 12 -1.</_>
        <_>
          14 6 6 6 2.</_></rects>
      <tilted>1</tilted></_>
    <_>
      <rects>
        <_>
          14 9 3 1 -1.</_>
        <_>
          15 9 1 1 3.</_></rects>
      <tilted>0</tilted></_>
    <_>
      <rects>
        <_>
          15 12 6 1 -1.</_>
        <_>
          17 12 2 1 3.</_></rects>
      <tilted>0</tilted></_>
    <_>
      <rects>
        <_>
          16 6 3 3 -1.</_>
        <_>
          17 6 1 3 3.</_></rects>
      <tilted>0</tilted></_>
    <_>
      <rects>
        <_>
          16 7 2 2 -1.</_>
        <_>
          16 7 1 1 2.</_>
        <_>
          17 8 1 1 2.</_></rects>
      <tilted>0</tilted></_>
    <_>
      <rects>
        <_>
          16 19 1 2 -1.</_>
        <_>
          16 19 1 1 2.</_></rects>
      <tilted>1</tilted></_>
    <_>
      <rects>
        <_>
          17 16 2 6 -1.</_>
        <_>
          17 19 2 3 2.</_></rects>
      <tilted>0</tilted></_>
    <_>
      <rects>
        <_>
          17 17 4 2 -1.</_>
        <_>
          18 18 2 2 2.</_></rects>
      <tilted>1</tilted></_>
    <_>
      <rects>
        <_>
          18 17 2 4 -1.</_>
        <_>
          18 19 2 2 2.</_></rects>
      <tilted>0</tilted></_>
    <_>
      <rects>
        <_>
          18 21 6 3 -1.</_>
        <_>
          21 21 3 3 2.</_></rects>
      <tilted>0</tilted></_>
    <_>
      <rects>
        <_>
          19 13 1 2 -1.</_>
        <_>
          19 14 1 1 2.</_></rects>
      <tilted>0</tilted></_>
    <_>
      <rects>
        <_>
          19 14 3 9 -1.</_>
        <_>
          20 17 1 3 9.</_></rects>
      <tilted>0</tilted></_>
    <_>
      <rects>
        <_>
          20 9 4 15 -1.</_>
        <_>
          22 9 2 15 2.</_></rects>
      <tilted>0</tilted></_>
    <_>
      <rects>
        <_>
          20 17 4 6 -1.</_>
        <_>
          20 17 2 3 2.</_>
        <_>
          22 20 2 3 2.</_></rects>
      <tilted>0</tilted></_>
    <_>
      <rects>
        <_>
          20 20 4 4 -1.</_>
        <_>
          22 20 2 4 2.</_></rects>
      <tilted>0</tilted></_>
    <_>
      <rects>
        <_>
          21 13 2 2 -1.</_>
        <_>
          21 13 1 1 2.</_>
        <_>
          22 14 1 1 2.</_></rects>
      <tilted>0</tilted></_>
    <_>
      <rects>
        <_>
          21 15 2 9 -1.</_>
        <_>
          22 15 1 9 2.</_></rects>
      <tilted>0</tilted></_>
    <_>
      <rects>
        <_>
          21 16 1 4 -1.</_>
        <_>
          21 17 1 2 2.</_></rects>
      <tilted>0</tilted></_>
    <_>
      <rects>
        <_>
          22 8 2 14 -1.</_>
        <_>
          23 8 1 14 2.</_></rects>
      <tilted>0</tilted></_>
    <_>
      <rects>
        <_>
          23 13 1 10 -1.</_>
        <_>
          23 18 1 5 2.</_></rects>
      <tilted>0</tilted></_>
    <_>
      <rects>
        <_>
          23 15 1 6 -1.</_>
        <_>
          23 18 1 3 2.</_></rects>
      <tilted>0</tilted></_>
    <_>
      <rects>
        <_>
          23 17 1 6 -1.</_>
        <_>
          23 17 1 3 2.</_></rects>
      <tilted>1</tilted></_></features></cascade>
</opencv_storage>
